{"sizes": [4, 10, 3], "weights": [[[0.5403530767622563, 0.37015649502948755, 0.23216723930109942, 1.3482481392672854], [0.10353970839883041, -2.2228198944295845, 0.7860547585003088, 1.3540923789993526], [0.6875456360331144, -0.21886272561062464, -0.48513554588606417, 0.29839947450720034], [0.7405138782540308, -1.5856579367036006, -0.09767566101931593, 0.4941890858063792], [-0.903698977549093, 0.954888754506486, 1.4409625107475272, 0.4545620300426809], [0.5088565576696072, 2.1205148640713696, 0.35483933492331576, -0.19201219225991123], [-1.5662828442824446, -1.3846547397537283, 0.054288298000488684, -0.4726690385879965], [-1.2751093410799006, -0.3063391214921561, -0.5235833037112507, 0.5869351435040977], [-0.6650213680230733, -0.942460433745636, -0.6192375746075209, 0.16450337214506838], [0.8247662497300753, -0.1488613789334651, -0.33654649697775213, 0.5078210820425991]], [[-0.053531292641764504, 0.8186589555888203, 0.26916646429380936, 0.6979603894342745, -1.6591356318144448, 0.7501284736764482, -0.183887773745097, 1.1084350537217234, -2.1496058889682654, 1.545924804561869], [0.41071968179376755, -0.008224712508567551, 0.9646848255027579, 0.009802096253342961, -0.09216586927919171, -0.348119014535528, 1.1604767049286442, -0.8847505313079638, 0.4996044297148725, -0.6853794386248688], [0.38720125739850464, 0.07608766447292158, 0.17816311657468106, -1.023831345250649, 0.7102322223528676, -1.0139191773801872, 0.5370306391542226, 0.24533417637372398, 0.642713694388126, 0.5776389889537648]]], "biases": [[[-0.7678031866446252], [-1.4700584200865678], [-1.8762430510563746], [-1.1498478796548848], [0.9032193619111086], [0.7288302823363728], [1.4050584562466297], [-1.5333157446554768], [-1.6653190015061963], [1.1031614770285532]], [[-1.19021822761382], [-1.0350399994079502], [1.725267452953749]]]}