{"sizes": [4, 20, 7, 3], "weights": [[[0.2588463063444793, -0.7116611014771352, -0.08005920460942581, -0.09231476998807739], [0.08304085083778372, -0.5632720441112772, -0.37372052056594574, -0.4973903419179744], [1.0189532638518664, 0.4974033760539299, -0.28798572689305435, 0.4533163514600462], [1.040006813354312, 0.11681474867983359, -0.030906439201116104, -0.33429073909928914], [0.2523115290902983, -0.2092401230219125, 0.3849674346241884, 0.4145891231996548], [-0.016263057972762993, 0.3617833483860765, 0.31882287953392097, -0.3355810282413459], [-0.2787461337543449, 0.4988050270885959, -1.2019942895513, -0.14792280547962813], [-0.9047299175771664, 0.6328870667522473, -0.7366947995700353, 0.12779621545728373], [0.039485215576959345, 0.22288160204520818, -0.3453847091329851, -0.010921607155852359], [-0.8430669635541808, 0.23897045162351646, -0.614522740725394, -1.6884081064281389], [0.15666707991417833, 0.04371207031025225, 0.7976604405645235, -0.0690348273098845], [0.39416032141718577, -0.3959036827192221, -1.461756790175054, -0.5129174874376689], [-0.8854042044101029, 0.2858200735114515, 0.3686032264415724, -0.6958265282375167], [0.3895381885346942, -0.01926055349533617, 0.6154287561284859, 0.2719038153227814], [-0.9784570816164003, -0.4526824402464909, 0.7899367180005223, -0.41740235631597583], [-0.14571266335842234, 0.34513461444677945, -0.42061349287233135, 0.154950130729179], [-0.07939779780869291, 0.3678712847436122, -0.18217125133834602, -0.20888273671577218], [0.47632398813068955, -0.22604631757564986, 0.08946909060298076, -0.2839664690917415], [0.5796744175168269, -0.23243303781058797, 0.2298305920876039, 0.17872691375047703], [0.851696134958222, -0.49592704276884064, 0.5174221784586868, 0.40200246289543745]], [[-0.032456951430243935, -0.05867109574124496, 0.3206391136541147, 0.3102879968918455, -0.06669683358381336, -0.1199262987800191, -0.20440839439911748, -0.2493495084564405, 0.5138078891711598, 0.2007719115062986, -0.01745688865523906, -0.32336110408762464, -0.38596928292979793, 0.18193074540826595, 0.0742570621065297, 0.10800901199094498, 0.1245615211201331, -0.45278103006526227, 0.33767871169788344, 0.27311974086014607], [0.05669431626316548, -0.0060108595563565384, -0.12497884816640178, -0.06035106442792713, 0.05887484576863879, -0.16502839343470652, 0.019336935912358064, -0.186147317040035, -0.11228443497527274, 0.051384769534488034, -0.02445522461410876, -0.12433828823111046, -0.20776734549289386, -0.1356429409392156, 0.12422499493361773, 0.12669053990504633, 0.13250701858127387, 0.2323259408869368, 0.06178354022228085, -0.060743322537849774], [-0.15437750031860425, 0.1703226631462286, 0.12261132016833151, 0.5347760333260188, -0.5131229586510303, 0.48498699551326074, 0.030832031757057416, -0.36874753306780594, -0.03466211802212757, 0.3310884555323565, 0.1663549110636433, -0.3299425152663056, -0.29753980140650244, 0.06701217860976671, 0.15820490193716688, 0.08985949035601141, 0.18654775738333837, 0.13932913968011862, 0.06773289255453362, -0.059965973834227596], [0.2559492955909813, 0.13905743739866072, 0.20321246795453243, -0.036208540241180004, -0.3006041646355304, -0.007972059805311358, 0.04660639561965707, -0.17516683014997161, -0.13461698264854116, -0.14466935318399393, 0.02948705126283521, 0.11715626228172915, -0.01830063954241563, -0.03069953592253134, -0.3033369145829779, 0.20431009708804282, -0.346556664038554, 0.014060386490255754, 0.22591649328437932, -0.16004253204979216], [0.425836178513647, 0.01015999831201062, -0.1896909542642745, 0.37098124435768154, 0.1310870812081336, 0.4165055510792409, -0.06711431211653779, 0.07391739354935506, -0.0009658028335629119, 0.26974409882692824, -0.02969878633497727, 0.07037575850235571, -0.16361373998753018, 0.33091472596890403, 0.20481303762119543, -0.25366632822094304, 0.5434091553386833, 0.12587643682852473, -0.3972281380314679, -0.22060828635392957], [0.050708863603553596, 0.2958473322532842, 0.009362365520025898, 0.17542178392365343, 0.28848422240386845, -0.17388609977508912, -0.032506027950031616, -0.19648879629155183, 0.0609756355114607, 0.2535543558643575, 0.0988213040477436, -0.08814750750552829, 0.01988929207586174, 0.33288648860956527, -0.05819058769487791, -0.11156488880626347, 0.027266888064811794, -0.11154602228269553, 0.0861368224240668, 0.031739394996563274], [-0.07930200652525415, 0.124275215818399, 0.005702819365256018, 0.11884815080249596, 0.128983440801956, -0.359628097882142, 0.20623881914438386, 0.21453883469207513, 0.22107222383274325, 0.05300161378742256, -0.18297770262951832, 0.06743949369084044, -0.11429260624294202, -0.10848039449856954, 0.11422466212174949, 0.10392713675327718, -0.17175363982962916, 0.2811666902598592, 0.12640397593948494, -0.04318356839120559]], [[-0.6311694530135751, 0.16625302640202996, -0.0414037150423211, 0.2852756322200246, -0.44054087022104044, 0.5411663989787929, -0.32478525882768305], [0.8737571315024637, -0.10551864075815885, 0.3228969451584699, -0.20792437842795844, -0.5688492572040859, 0.7195600156889776, -0.24958229121354206], [0.14144715819710404, 0.365620552519258, 0.03172396680203776, 0.23508254290539424, 0.42379572774241153, -0.11298598724428201, 0.6353309399134865]]], "biases": [[[-1.187071309333393], [-2.3398695326947125], [-0.4599597911586795], [-0.42706555555656006], [-0.682568606605389], [0.2545965949110045], [-0.02252577086659027], [0.042773618628032584], [-0.36735390784915367], [0.5333774905656519], [0.630128842062247], [-1.022350204517215], [0.633619635377692], [-0.40180945347243274], [-0.8086350637862534], [-0.2324254123349217], [-0.6840388987121128], [0.14112037714685186], [-1.532129131964346], [-0.35461372082672804]], [[-0.4029827550962931], [0.5257284654882864], [0.9588014428547789], [-0.2822544151949755], [0.565728940837834], [-1.2780512825220083], [2.0331706862055787]], [[0.14135423302629396], [-1.3566063570335274], [-1.208869897453071]]]}