{"sizes": [4, 10, 3], "weights": [[[1.0684656596906774, 1.8377385790507548, 0.431978391255998, -1.2763675336068616], [0.43557290567621954, 0.7116454351454986, -1.3601461560243775, 0.8137011864711071], [0.8406478566503139, -0.5752740031662832, -1.7814488253964529, 0.1801940977576794], [-1.2247406311065168, 0.4620287678172312, 0.5741103302421607, 0.6283909442498685], [0.8813578650070408, 0.32136448883882485, 0.2827798350624909, -1.0852788562434055], [0.001918951722445977, -1.3050698229038995, 0.7433452833577036, -0.18971774505010305], [0.7916810811280233, 0.5356691267216351, 0.033572855309627704, 0.3211381289124951], [-0.415080479691436, 0.3412269718022544, -0.30970000651159924, 0.09096804376863854], [0.3656080666304846, -0.3911396346837493, -0.010389869945741207, 1.4630871126932348], [-0.3414470119416106, 0.31452450592938447, -0.6501800654051619, 1.096734286045139]], [[2.0892749596142317, 0.38344247991463243, -1.284493624603739, -0.04855408360822759, 0.19798014809434064, -0.6858580814847891, -0.30070440342223753, 0.3591501167066978, 1.6645596306974484, 0.7336332539251063], [-0.8116285327595074, -0.8468155455564503, 1.9354723187141138, -1.5993947779002755, -1.494370857422047, -0.03345447135340706, 1.7837979812549518, -1.668721206745144, 0.3282833522069748, -0.27670505099419407], [2.7201810908505517, 0.8626832604154561, -1.6801680324782866, -1.5971010000909756, 0.5281540617193523, 0.32256138081913416, -0.9634284688206032, -0.04478422878882571, 0.5809608904161283, -0.3177567911344233]]], "biases": [[[-2.0361641635401715], [-1.3978539997327395], [-0.7407626722277965], [0.7933929221243536], [0.6882883197343085], [1.3124472083185208], [1.505148896554714], [0.7037341337370285], [-0.12876286293697195], [1.46462118945338]], [[-0.9388122249104678], [0.20562639583659467], [0.3796078042998912]]]}